{"hidden1_kernel": [[-0.6643573045730591, -0.3625807464122772, -0.4461616575717926, 0.31496667861938477, 0.602689266204834, 0.44825175404548645, 0.553407609462738, 0.1574564427137375], [-0.5538978576660156, -0.12460824847221375, 0.34731101989746094, 0.4256872534751892, 0.35354918241500854, -0.08814749121665955, 0.15175001323223114, 0.1777762770652771], [0.3230396509170532, 0.3135904371738434, 0.5500584244728088, -0.5534010529518127, 0.3564686179161072, -0.5106680989265442, 0.496640145778656, 0.3408252000808716], [-0.6294539570808411, -0.33906447887420654, -0.47464174032211304, -0.6725471615791321, -0.11463373154401779, 0.4780510663986206, 0.29894500970840454, 0.5894317030906677], [-0.22149595618247986, 0.27633681893348694, -0.0493721105158329, 0.28739577531814575, 0.11199995130300522, -0.39072495698928833, -0.25991228222846985, -0.7196732759475708]], "hidden1_bias": [0.14621157944202423, -0.12513183057308197, -0.05179959908127785, 0.04114687815308571, -0.039281606674194336, -0.12296202033758163, 0.10741222649812698, 0.15543316304683685], "hidden2_kernel": [[-0.7965885996818542, 0.18282967805862427, 0.45200014114379883, 0.10878398269414902], [0.5640227198600769, -0.625831663608551, -0.20238950848579407, 0.43967562913894653], [0.16623961925506592, 0.6023445725440979, 0.6811588406562805, 0.5480929613113403], [0.2906497120857239, -0.5713739395141602, 0.6901707053184509, 0.27656155824661255], [0.338558167219162, -0.24612657725811005, 0.19030515849590302, 0.4141896069049835], [0.19123107194900513, 0.05033748969435692, -0.3395654261112213, 0.40938523411750793], [0.4445556700229645, 0.27399522066116333, 0.4852219521999359, 0.7801769375801086], [0.565173327922821, -0.281133234500885, -0.7101456522941589, -0.39953863620758057]], "hidden2_bias": [-0.11427611112594604, -0.12258534133434296, 0.20101182162761688, -0.15596725046634674], "output_kernel": [[1.0377960205078125], [0.7265865206718445], [-0.7296178936958313], [0.316033273935318]], "output_bias": [-0.16982252895832062]}